digraph Tree {
node [shape=box, style="filled, rounded", color="black", fontname=helvetica] ;
edge [fontname=helvetica] ;
0 [label="thal_2 <= 0.5\ngini = 0.5\nsamples = 235\nvalue = [112, 123]", fillcolor="#edf6fd"] ;
1 [label="thalach <= 144.5\ngini = 0.37\nsamples = 107\nvalue = [81, 26]", fillcolor="#eda979"] ;
0 -> 1 [labeldistance=2.5, labelangle=45, headlabel="True"] ;
2 [label="slope_2 <= 0.5\ngini = 0.13\nsamples = 55\nvalue = [51, 4]", fillcolor="#e78b49"] ;
1 -> 2 ;
3 [label="trestbps <= 112.0\ngini = 0.04\nsamples = 47\nvalue = [46, 1]", fillcolor="#e6843d"] ;
2 -> 3 ;
4 [label="age <= 51.0\ngini = 0.44\nsamples = 3\nvalue = [2, 1]", fillcolor="#f2c09c"] ;
3 -> 4 ;
5 [label="gini = 0.0\nsamples = 2\nvalue = [2, 0]", fillcolor="#e58139"] ;
4 -> 5 ;
6 [label="gini = 0.0\nsamples = 1\nvalue = [0, 1]", fillcolor="#399de5"] ;
4 -> 6 ;
7 [label="gini = 0.0\nsamples = 44\nvalue = [44, 0]", fillcolor="#e58139"] ;
3 -> 7 ;
8 [label="age <= 63.5\ngini = 0.47\nsamples = 8\nvalue = [5, 3]", fillcolor="#f5cdb0"] ;
2 -> 8 ;
9 [label="gini = 0.0\nsamples = 5\nvalue = [5, 0]", fillcolor="#e58139"] ;
8 -> 9 ;
10 [label="gini = 0.0\nsamples = 3\nvalue = [0, 3]", fillcolor="#399de5"] ;
8 -> 10 ;
11 [label="chol <= 244.0\ngini = 0.49\nsamples = 52\nvalue = [30, 22]", fillcolor="#f8ddca"] ;
1 -> 11 ;
12 [label="oldpeak <= 2.55\ngini = 0.47\nsamples = 29\nvalue = [11, 18]", fillcolor="#b2d9f5"] ;
11 -> 12 ;
13 [label="ca <= 0.5\ngini = 0.43\nsamples = 26\nvalue = [8, 18]", fillcolor="#91c9f1"] ;
12 -> 13 ;
14 [label="chol <= 179.0\ngini = 0.22\nsamples = 16\nvalue = [2, 14]", fillcolor="#55abe9"] ;
13 -> 14 ;
15 [label="gini = 0.0\nsamples = 1\nvalue = [1, 0]", fillcolor="#e58139"] ;
14 -> 15 ;
16 [label="cp_1 <= 0.5\ngini = 0.12\nsamples = 15\nvalue = [1, 14]", fillcolor="#47a4e7"] ;
14 -> 16 ;
17 [label="gini = 0.0\nsamples = 12\nvalue = [0, 12]", fillcolor="#399de5"] ;
16 -> 17 ;
18 [label="chol <= 225.0\ngini = 0.44\nsamples = 3\nvalue = [1, 2]", fillcolor="#9ccef2"] ;
16 -> 18 ;
19 [label="gini = 0.0\nsamples = 2\nvalue = [0, 2]", fillcolor="#399de5"] ;
18 -> 19 ;
20 [label="gini = 0.0\nsamples = 1\nvalue = [1, 0]", fillcolor="#e58139"] ;
18 -> 20 ;
21 [label="ca <= 2.5\ngini = 0.48\nsamples = 10\nvalue = [6, 4]", fillcolor="#f6d5bd"] ;
13 -> 21 ;
22 [label="cp_2 <= 0.5\ngini = 0.38\nsamples = 8\nvalue = [6, 2]", fillcolor="#eeab7b"] ;
21 -> 22 ;
23 [label="gini = 0.0\nsamples = 5\nvalue = [5, 0]", fillcolor="#e58139"] ;
22 -> 23 ;
24 [label="chol <= 228.0\ngini = 0.44\nsamples = 3\nvalue = [1, 2]", fillcolor="#9ccef2"] ;
22 -> 24 ;
25 [label="gini = 0.0\nsamples = 2\nvalue = [0, 2]", fillcolor="#399de5"] ;
24 -> 25 ;
26 [label="gini = 0.0\nsamples = 1\nvalue = [1, 0]", fillcolor="#e58139"] ;
24 -> 26 ;
27 [label="gini = 0.0\nsamples = 2\nvalue = [0, 2]", fillcolor="#399de5"] ;
21 -> 27 ;
28 [label="gini = 0.0\nsamples = 3\nvalue = [3, 0]", fillcolor="#e58139"] ;
12 -> 28 ;
29 [label="trestbps <= 122.0\ngini = 0.29\nsamples = 23\nvalue = [19, 4]", fillcolor="#ea9c63"] ;
11 -> 29 ;
30 [label="trestbps <= 114.0\ngini = 0.38\nsamples = 4\nvalue = [1, 3]", fillcolor="#7bbeee"] ;
29 -> 30 ;
31 [label="gini = 0.0\nsamples = 1\nvalue = [1, 0]", fillcolor="#e58139"] ;
30 -> 31 ;
32 [label="gini = 0.0\nsamples = 3\nvalue = [0, 3]", fillcolor="#399de5"] ;
30 -> 32 ;
33 [label="oldpeak <= 4.1\ngini = 0.1\nsamples = 19\nvalue = [18, 1]", fillcolor="#e68844"] ;
29 -> 33 ;
34 [label="gini = 0.0\nsamples = 18\nvalue = [18, 0]", fillcolor="#e58139"] ;
33 -> 34 ;
35 [label="gini = 0.0\nsamples = 1\nvalue = [0, 1]", fillcolor="#399de5"] ;
33 -> 35 ;
36 [label="ca <= 0.5\ngini = 0.37\nsamples = 128\nvalue = [31, 97]", fillcolor="#78bced"] ;
0 -> 36 [labeldistance=2.5, labelangle=-45, headlabel="False"] ;
37 [label="age <= 57.5\ngini = 0.2\nsamples = 90\nvalue = [10, 80]", fillcolor="#52a9e8"] ;
36 -> 37 ;
38 [label="oldpeak <= 3.55\ngini = 0.06\nsamples = 65\nvalue = [2, 63]", fillcolor="#3fa0e6"] ;
37 -> 38 ;
39 [label="trestbps <= 109.0\ngini = 0.03\nsamples = 64\nvalue = [1, 63]", fillcolor="#3c9fe5"] ;
38 -> 39 ;
40 [label="oldpeak <= 0.3\ngini = 0.24\nsamples = 7\nvalue = [1, 6]", fillcolor="#5aade9"] ;
39 -> 40 ;
41 [label="sex_1 <= 0.5\ngini = 0.44\nsamples = 3\nvalue = [1, 2]", fillcolor="#9ccef2"] ;
40 -> 41 ;
42 [label="gini = 0.0\nsamples = 2\nvalue = [0, 2]", fillcolor="#399de5"] ;
41 -> 42 ;
43 [label="gini = 0.0\nsamples = 1\nvalue = [1, 0]", fillcolor="#e58139"] ;
41 -> 43 ;
44 [label="gini = 0.0\nsamples = 4\nvalue = [0, 4]", fillcolor="#399de5"] ;
40 -> 44 ;
45 [label="gini = 0.0\nsamples = 57\nvalue = [0, 57]", fillcolor="#399de5"] ;
39 -> 45 ;
46 [label="gini = 0.0\nsamples = 1\nvalue = [1, 0]", fillcolor="#e58139"] ;
38 -> 46 ;
47 [label="chol <= 231.5\ngini = 0.44\nsamples = 25\nvalue = [8, 17]", fillcolor="#96cbf1"] ;
37 -> 47 ;
48 [label="oldpeak <= 2.8\ngini = 0.2\nsamples = 9\nvalue = [1, 8]", fillcolor="#52a9e8"] ;
47 -> 48 ;
49 [label="gini = 0.0\nsamples = 8\nvalue = [0, 8]", fillcolor="#399de5"] ;
48 -> 49 ;
50 [label="gini = 0.0\nsamples = 1\nvalue = [1, 0]", fillcolor="#e58139"] ;
48 -> 50 ;
51 [label="oldpeak <= 1.2\ngini = 0.49\nsamples = 16\nvalue = [7, 9]", fillcolor="#d3e9f9"] ;
47 -> 51 ;
52 [label="oldpeak <= 0.2\ngini = 0.46\nsamples = 14\nvalue = [5, 9]", fillcolor="#a7d3f3"] ;
51 -> 52 ;
53 [label="thalach <= 170.5\ngini = 0.49\nsamples = 7\nvalue = [4, 3]", fillcolor="#f8e0ce"] ;
52 -> 53 ;
54 [label="trestbps <= 177.0\ngini = 0.32\nsamples = 5\nvalue = [4, 1]", fillcolor="#eca06a"] ;
53 -> 54 ;
55 [label="gini = 0.0\nsamples = 4\nvalue = [4, 0]", fillcolor="#e58139"] ;
54 -> 55 ;
56 [label="gini = 0.0\nsamples = 1\nvalue = [0, 1]", fillcolor="#399de5"] ;
54 -> 56 ;
57 [label="gini = 0.0\nsamples = 2\nvalue = [0, 2]", fillcolor="#399de5"] ;
53 -> 57 ;
58 [label="age <= 66.5\ngini = 0.24\nsamples = 7\nvalue = [1, 6]", fillcolor="#5aade9"] ;
52 -> 58 ;
59 [label="gini = 0.0\nsamples = 6\nvalue = [0, 6]", fillcolor="#399de5"] ;
58 -> 59 ;
60 [label="gini = 0.0\nsamples = 1\nvalue = [1, 0]", fillcolor="#e58139"] ;
58 -> 60 ;
61 [label="gini = 0.0\nsamples = 2\nvalue = [2, 0]", fillcolor="#e58139"] ;
51 -> 61 ;
62 [label="oldpeak <= 0.85\ngini = 0.49\nsamples = 38\nvalue = [21, 17]", fillcolor="#fae7d9"] ;
36 -> 62 ;
63 [label="sex_1 <= 0.5\ngini = 0.46\nsamples = 25\nvalue = [9, 16]", fillcolor="#a8d4f4"] ;
62 -> 63 ;
64 [label="age <= 60.5\ngini = 0.26\nsamples = 13\nvalue = [2, 11]", fillcolor="#5dafea"] ;
63 -> 64 ;
65 [label="trestbps <= 129.0\ngini = 0.44\nsamples = 6\nvalue = [2, 4]", fillcolor="#9ccef2"] ;
64 -> 65 ;
66 [label="gini = 0.0\nsamples = 3\nvalue = [0, 3]", fillcolor="#399de5"] ;
65 -> 66 ;
67 [label="exang_1 <= 0.5\ngini = 0.44\nsamples = 3\nvalue = [2, 1]", fillcolor="#f2c09c"] ;
65 -> 67 ;
68 [label="gini = 0.0\nsamples = 2\nvalue = [2, 0]", fillcolor="#e58139"] ;
67 -> 68 ;
69 [label="gini = 0.0\nsamples = 1\nvalue = [0, 1]", fillcolor="#399de5"] ;
67 -> 69 ;
70 [label="gini = 0.0\nsamples = 7\nvalue = [0, 7]", fillcolor="#399de5"] ;
64 -> 70 ;
71 [label="trestbps <= 121.0\ngini = 0.49\nsamples = 12\nvalue = [7, 5]", fillcolor="#f8dbc6"] ;
63 -> 71 ;
72 [label="gini = 0.0\nsamples = 5\nvalue = [5, 0]", fillcolor="#e58139"] ;
71 -> 72 ;
73 [label="age <= 56.5\ngini = 0.41\nsamples = 7\nvalue = [2, 5]", fillcolor="#88c4ef"] ;
71 -> 73 ;
74 [label="gini = 0.0\nsamples = 4\nvalue = [0, 4]", fillcolor="#399de5"] ;
73 -> 74 ;
75 [label="thalach <= 146.5\ngini = 0.44\nsamples = 3\nvalue = [2, 1]", fillcolor="#f2c09c"] ;
73 -> 75 ;
76 [label="gini = 0.0\nsamples = 1\nvalue = [0, 1]", fillcolor="#399de5"] ;
75 -> 76 ;
77 [label="gini = 0.0\nsamples = 2\nvalue = [2, 0]", fillcolor="#e58139"] ;
75 -> 77 ;
78 [label="slope_2 <= 0.5\ngini = 0.14\nsamples = 13\nvalue = [12, 1]", fillcolor="#e78c49"] ;
62 -> 78 ;
79 [label="gini = 0.0\nsamples = 12\nvalue = [12, 0]", fillcolor="#e58139"] ;
78 -> 79 ;
80 [label="gini = 0.0\nsamples = 1\nvalue = [0, 1]", fillcolor="#399de5"] ;
78 -> 80 ;
}